{"0_weights": [[-0.2962840497493744, -0.25415748357772827, 0.2644963264465332, -0.33229711651802063, 0.2876526117324829, -0.5540477633476257, -0.5292351841926575, 0.33730775117874146, 0.3895944654941559, 0.07265574485063553, 0.7549787759780884, -0.00399384880438447, 0.06211389973759651, 0.2508895695209503, 0.2201354205608368, -0.00136841693893075], [-0.3631170988082886, -0.5116394758224487, 0.6162115335464478, -0.787196159362793, -0.9592843055725098, -0.33131125569343567, 0.4595840275287628, -0.14602696895599365, 0.8144678473472595, 0.7168023586273193, 0.13459376990795135, -0.23364879190921783, -0.4562637507915497, 0.5181447267532349, 0.4389760494232178, -0.20137880742549896], [-0.5697795152664185, -0.9150962829589844, 0.394560843706131, -0.7841334939002991, 0.28982973098754883, 0.7320814728736877, 0.14125819504261017, -0.1587940901517868, -0.08653727918863297, -0.09390360116958618, -0.5481994152069092, 0.5320814847946167, -0.23843874037265778, -0.23418459296226501, 0.5824505090713501, 0.37135952711105347], [-0.249917671084404, 0.1987793892621994, -0.0657154992222786, 0.2715407609939575, -0.16555015742778778, 0.3733028173446655, -0.3798094093799591, 0.5407674312591553, -0.6681573390960693, 0.05985540524125099, -0.609592854976654, 0.4634537398815155, 0.26790037751197815, -0.025237927213311195, -0.47118183970451355, -0.4595516324043274], [0.7230067253112793, 0.15547874569892883, 0.1403283178806305, 0.40311315655708313, -0.5175355076789856, 0.09894664585590363, -0.05507882311940193, -0.019236965104937553, 0.4745100438594818, 0.6269412040710449, 0.9358874559402466, 0.3665373623371124, 0.8366602659225464, -0.5990076065063477, 0.423565536737442, -0.2312631458044052], [0.5915197730064392, -0.05751519277691841, -0.1894395649433136, 0.07328729331493378, 0.3878403902053833, 0.7459787726402283, 0.3165600299835205, -0.6753717660903931, 0.3348456621170044, 0.3698132634162903, 0.5077938437461853, 0.1408228576183319, 0.039911191910505295, 0.7323242425918579, 0.6130412220954895, -0.5110633373260498], [0.08073516935110092, 0.5706602334976196, -0.03863060101866722, 0.04388560354709625, -0.043305493891239166, 0.34598827362060547, -0.25706106424331665, -0.11695470660924911, -1.1289180517196655, -0.9784586429595947, -0.0015001620631664991, -0.42066770792007446, 0.05914009362459183, 0.3261750638484955, -0.04484618827700615, 0.5965114831924438], [0.22584062814712524, -0.8603163957595825, 0.48300647735595703, -0.2730202078819275, 0.3462434411048889, 0.21279996633529663, 0.6370726227760315, 0.450374037027359, 0.1274840384721756, -0.0019462528871372342, 0.7029278874397278, -0.04961947351694107, -0.4586406350135803, -0.22677744925022125, 0.09627164900302887, -0.25530698895454407], [0.4292728304862976, -0.6295842528343201, 0.40104711055755615, -0.09755928814411163, -0.09018399566411972, 0.14469371736049652, 0.3212455213069916, -0.034910138696432114, 0.45069077610969543, -0.26248931884765625, -0.019336991012096405, -0.5002564191818237, -0.25422388315200806, -0.1078660786151886, -0.045255690813064575, -0.1827460080385208], [0.012871353887021542, -0.618202805519104, -0.2255648821592331, 0.31165680289268494, -0.5977991223335266, -0.4820098876953125, 0.04630722105503082, 0.10069099068641663, 0.14886242151260376, 0.24329617619514465, 0.0405849888920784, 0.16733615100383759, -0.4120432734489441, 0.339227557182312, -0.49069854617118835, 0.45286792516708374], [0.32306304574012756, 0.6116084456443787, 0.383296400308609, -0.7045982480049133, -0.014804302714765072, 0.2435242384672165, -0.28555798530578613, -1.3479338884353638, -0.2565450668334961, 0.5870993733406067, -1.0741115808486938, 0.4906988739967346, -0.06576252728700638, -0.11911123991012573, -1.004111647605896, 1.233445644378662]], "1_weights": [[-0.4104560911655426, 0.245407372713089, 0.013148761354386806, -0.27527663111686707, 0.4206297695636749, 0.28226208686828613, 0.5812528133392334, -0.24321295320987701, -0.07903940975666046, 0.49618202447891235, 0.4279286861419678, 0.7375690937042236, 0.06964798271656036, 0.025682738050818443, -0.15714161098003387, 0.2848737835884094], [-0.37033215165138245, -0.04621833190321922, -0.11590071767568588, -0.1384066939353943, -0.1878780871629715, -0.4110189378261566, -2.1744375228881836, -0.24060723185539246, 0.04574274271726608, -1.2974658012390137, 0.45676136016845703, -0.41595330834388733, 0.47320953011512756, 0.46247753500938416, -0.40447884798049927, 0.7872490286827087], [-0.165043905377388, -0.2550588548183441, 0.0261209886521101, -0.1654360145330429, -0.05702000856399536, 0.34355801343917847, -0.008191997185349464, 0.06979669630527496, 0.29310688376426697, 0.16354753077030182, 0.17874547839164734, 0.41140374541282654, -0.8941139578819275, -0.5447600483894348, -0.45252665877342224, 0.41418933868408203], [0.5565298795700073, 0.43670815229415894, -0.8566042184829712, -0.1428624391555786, 0.33902695775032043, -0.09348998963832855, -0.39726078510284424, 0.36824166774749756, -0.951301634311676, -0.836340069770813, -1.1898751258850098, -0.45201367139816284, -0.22448395192623138, 0.5769037008285522, -0.5414129495620728, 0.05790938064455986], [-0.6881574392318726, -0.018785640597343445, 0.08246437460184097, -0.42728179693222046, 0.41534149646759033, -0.9592598676681519, 0.5809721946716309, -0.05810752511024475, -0.07642767578363419, 0.2682332396507263, 0.45833253860473633, -0.08134397864341736, -0.16360029578208923, -0.844485878944397, -0.3532440960407257, 0.049984876066446304], [0.5532044768333435, 0.4527766704559326, 0.10516137629747391, 0.2682713568210602, -0.2813362777233124, 0.497481107711792, 0.0343707837164402, 0.540293276309967, 0.1380152851343155, -0.2574571967124939, -0.16936513781547546, 0.7175341248512268, 0.47655153274536133, 0.039123862981796265, 0.09218553453683853, -0.6638712286949158], [0.5869788527488708, -0.022621730342507362, 0.16960109770298004, 0.40699946880340576, -0.5868558287620544, 0.10088537633419037, -0.5703194737434387, 0.2659848928451538, -0.0989999920129776, -0.36867186427116394, -0.3559054732322693, -0.469476580619812, 0.29691994190216064, 0.0007788669317960739, 0.5092973709106445, -0.36879709362983704], [0.4810151159763336, 0.6850640177726746, 0.40848007798194885, 0.09591218829154968, 0.4475927948951721, -0.6976999044418335, 0.42069944739341736, 0.2888537347316742, -0.1191479042172432, 0.7098886966705322, 0.16192327439785004, -0.243550106883049, 0.2884366810321808, 0.28829994797706604, -0.41132697463035583, -0.32125893235206604], [0.07382088154554367, -0.04663209617137909, 0.5974746942520142, 0.2195061296224594, 0.14692948758602142, 0.3738330006599426, -0.6019155383110046, 0.5594287514686584, -0.07664236426353455, 0.11301698535680771, -0.09493095427751541, -0.5761166214942932, -0.2780068516731262, 0.3496820032596588, -0.47509506344795227, 0.30019015073776245], [-0.022125883027911186, -0.42255187034606934, 0.3602408766746521, 0.18823818862438202, -0.36293458938598633, 0.10919233411550522, 0.5991091728210449, -0.61150723695755, 0.8868336081504822, 0.7039389610290527, 0.06495466828346252, 0.6229649782180786, -0.05917308107018471, -0.023155251517891884, 0.3996570408344269, 0.1468401998281479], [-0.49203699827194214, -0.4399692118167877, 0.225646510720253, 0.36879047751426697, 0.667685866355896, 0.15444128215312958, 0.23786123096942902, -0.05548997223377228, 0.09960684180259705, -0.3411124646663666, 0.3704600930213928, -0.19961220026016235, 0.36908188462257385, 0.32677915692329407, 0.4129108190536499, 0.5580083131790161], [0.14433158934116364, 0.4562433063983917, 0.004189413506537676, -0.3505341112613678, 0.34498193860054016, -0.13998565077781677, 0.185149148106575, -0.004632714670151472, -0.2460005283355713, 0.39488598704338074, 0.16691765189170837, 0.5332123637199402, 0.28912293910980225, -0.6061856746673584, 0.21174833178520203, 0.2301657795906067], [0.13393430411815643, -0.3909803330898285, 0.0018725637346506119, 0.2651379704475403, -0.1251567006111145, 0.003028111532330513, -0.8656202554702759, 0.0024025558959692717, 0.3320678174495697, -0.8980826139450073, -0.5036659240722656, -0.13938356935977936, 0.20989201962947845, -0.02952808327972889, 0.2899746596813202, -0.18886880576610565], [0.3556293547153473, 0.04329526424407959, 0.3033521771430969, 0.4654974937438965, -0.40647250413894653, -0.20054835081100464, -0.6232554912567139, 0.7831643223762512, 0.3807004392147064, -0.37899166345596313, -1.2958874702453613, 0.010203673504292965, 0.1993759125471115, -0.3085562288761139, 0.384286105632782, -0.09051773697137833], [0.23490919172763824, -0.22669614851474762, 0.40194302797317505, 0.3560771644115448, -0.034589577466249466, 0.7434343099594116, 0.01245848834514618, -0.3001873791217804, -0.05139772966504097, 0.35123857855796814, 0.615911602973938, -0.13156519830226898, 0.201747864484787, -1.1747628450393677, 0.482952356338501, 0.35763001441955566], [-0.19385406374931335, -0.7570335865020752, -0.3484480082988739, -0.6672375798225403, -2.5449228286743164, 0.887870192527771, -1.3707062005996704, -0.9778426289558411, 0.5087044835090637, -0.7424465417861938, -1.5405571460723877, -0.7558545470237732, -0.4610683023929596, -1.279252290725708, -0.19753405451774597, -1.1997053623199463]], "2_weights": [[-0.8167620897293091, -0.35811084508895874, -0.2263476550579071], [0.4370684325695038, -0.3958519399166107, 0.4505634605884552], [-0.28957507014274597, -0.511492133140564, 0.08243883401155472], [0.04991879314184189, -0.2696070969104767, -0.5085849761962891], [0.6418921947479248, 0.7494059205055237, 0.670405387878418], [-0.8971837759017944, -0.9974615573883057, -1.0415153503417969], [1.1711373329162598, 0.9751513600349426, 1.1221108436584473], [-0.3868982493877411, 0.062257107347249985, -0.2502107322216034], [-0.31749626994132996, -0.39227885007858276, -0.003517499193549156], [0.518279492855072, 1.1046358346939087, 0.6848077774047852], [0.7122306823730469, 0.6099534630775452, 0.5537202954292297], [0.6731979250907898, 0.9147874712944031, 0.8154116868972778], [-0.8235129714012146, -0.3148685395717621, -0.7763804793357849], [-1.1336371898651123, -1.0260342359542847, -1.1361407041549683], [-0.17911843955516815, -0.6464691758155823, -0.5110028386116028], [0.9544892907142639, 0.4230787456035614, 0.4399074912071228]], "0_bias": [0.0521598644554615, -0.29372653365135193, -0.14154930412769318, -0.0024476386606693268, 0.2217893749475479, -0.14169399440288544, 0.01216245535761118, 0.08524251729249954, 0.0019707735627889633, -0.10732883960008621, -0.11931804567575455, -0.008117799647152424, 0.2565164864063263, -0.1466611921787262, -0.11051464080810547, 0.005413706414401531], "1_bias": [-0.15950866043567657, 0.217862069606781, -0.016745204105973244, 0.1401379555463791, 0.05296418070793152, -0.18392765522003174, 0.0449463315308094, 0.02322675660252571, -0.23628512024879456, 0.11366556584835052, -0.14499524235725403, 0.08396037667989731, 0.01297467015683651, 0.19613799452781677, -0.019855359569191933, -0.10427226126194], "2_bias": [0.09138938784599304, 0.053923241794109344, -0.062062930315732956]}