{"0_weights": [[-0.1148843988776207, -0.0858132541179657, -0.13222335278987885, -0.42901119589805603, 0.2765350639820099, -0.5662472248077393, -0.2829715609550476, 0.07190805673599243, -0.19038310647010803, -0.01966598629951477, 0.24925559759140015, -0.2764352560043335, -0.28555360436439514, 0.055819444358348846, 0.1403665691614151, -0.3110094666481018], [-0.280263751745224, 0.7223685383796692, 0.3917589783668518, -0.3851623237133026, -0.33929774165153503, -0.1557874083518982, 0.5497814416885376, -0.20039837062358856, -0.039284706115722656, 0.11749731004238129, 0.09775523841381073, -0.36220306158065796, -0.2826097011566162, 0.7880491614341736, 0.44384893774986267, -0.06331676244735718], [-0.10873052477836609, 0.013328433968126774, 0.26886093616485596, -0.500284731388092, -0.012755649164319038, 0.4200875759124756, 0.11277367919683456, -0.28700220584869385, -0.4742676913738251, -0.08360064774751663, -0.7466176152229309, 1.128340244293213, -0.17944510281085968, -0.1345270276069641, 0.6733303070068359, 0.3609691858291626], [-0.44498106837272644, 0.664564311504364, -0.4747367799282074, 0.21186642348766327, -0.22883810102939606, 0.3424277603626251, -0.21491247415542603, 0.38039276003837585, -0.7577274441719055, 0.20651885867118835, -0.4236367344856262, -0.22020266950130463, -0.08832317590713501, -0.15239503979682922, -0.18812909722328186, -0.3608960807323456], [0.3916262686252594, 0.0725630670785904, 0.022243624553084373, 0.15334473550319672, -0.37945589423179626, 0.0701901987195015, -0.05625373125076294, -0.09019274264574051, 0.5453313589096069, 0.7853729724884033, 0.5794026851654053, 0.539217472076416, 0.3314116895198822, -0.4418913424015045, 0.5274932980537415, 0.008306550793349743], [0.5286615490913391, -0.8673800230026245, -0.1239641010761261, -0.6209596395492554, 0.24492034316062927, 0.4374382495880127, 0.20262813568115234, -0.5995230078697205, -0.4903353154659271, -0.10643509030342102, 0.28365764021873474, 0.261930912733078, -0.04342300072312355, 0.7730116248130798, 0.44230738282203674, -0.34706541895866394], [-0.16508881747722626, 0.21869325637817383, -0.2076265662908554, -0.3186710774898529, -0.20660753548145294, 0.3778979778289795, -0.40736907720565796, 0.29226234555244446, -0.7703741192817688, -0.415060818195343, 0.6111365556716919, -0.14898928999900818, 0.019897429272532463, 0.2102140337228775, -0.006466255523264408, 0.45692363381385803], [0.4457830786705017, -0.43469706177711487, 0.4490754306316376, -0.21828937530517578, 0.29595571756362915, 0.14969240128993988, 0.7198761701583862, 0.5326971411705017, 0.03593536093831062, 0.1468258500099182, 0.391513466835022, 0.2043025642633438, -0.723527193069458, -0.13208186626434326, -0.21510137617588043, -0.03049931302666664], [0.9101216197013855, -0.912455141544342, 1.1638399362564087, -3.511999238980934e-05, 0.037452906370162964, -0.39416182041168213, 0.8479236960411072, -0.29444360733032227, 0.9531352519989014, -0.6783440709114075, -0.29305320978164673, -0.09938045591115952, -0.04314311593770981, 0.01593349687755108, 0.1210753321647644, -0.3439180850982666], [-0.6009159088134766, -0.0675361379981041, -1.1643974781036377, -0.03835354000329971, -1.6625231504440308, 1.2726964950561523, 0.09574010968208313, -0.09186682105064392, 0.31753939390182495, 0.027502240613102913, -0.3206564486026764, 0.9883265495300293, -0.33884909749031067, 0.7086461186408997, 0.2507896423339844, 1.8038699626922607], [-0.034410715103149414, 0.22142423689365387, 0.21577590703964233, -0.24390187859535217, -0.06718467175960541, 0.299569308757782, -0.1603916436433792, -0.5476161241531372, -0.008282823488116264, -0.04033298417925835, -0.08754845708608627, 0.09763018786907196, 0.1622992902994156, -0.18116594851016998, -0.044194310903549194, 0.03363218158483505]], "1_weights": [[-0.17791813611984253, 0.3870006799697876, -0.3088332414627075, 0.03935636579990387, 0.5233070254325867, 0.14366717636585236, 0.675421953201294, 0.08047354221343994, -0.39589470624923706, 0.695122480392456, 0.8165263533592224, 0.36171233654022217, -0.24531953036785126, -0.19435586035251617, -0.4388749599456787, 0.31071534752845764], [-0.7477115988731384, -1.3483142852783203, 0.34399905800819397, -0.3279476761817932, -0.16066321730613708, -0.7891965508460999, -0.023480568081140518, -1.1459952592849731, 0.16951997578144073, 1.0683821439743042, -0.3237532079219818, -0.9038376808166504, -0.004694593138992786, -0.31605324149131775, -0.18959571421146393, -0.1058121994137764], [0.916625440120697, -0.06135449558496475, 0.08570639789104462, 0.3373575508594513, -0.2930210530757904, 0.352105051279068, -0.2815859317779541, 1.2798880338668823, -11.978951454162598, 0.31162625551223755, 0.5601469278335571, 0.5142728686332703, -1.2124803066253662, -0.3240433931350708, 0.06643505394458771, -0.1982792615890503], [0.2966369092464447, -0.06524942070245743, -0.28552916646003723, 0.20573344826698303, -0.018595805391669273, 0.22162598371505737, -0.20598280429840088, 0.04785016551613808, -0.15918070077896118, 0.006614188198000193, -0.3638753294944763, -0.1537843942642212, -0.20565374195575714, 0.37494543194770813, -0.36786267161369324, 0.31297919154167175], [0.5409404635429382, -0.005027494393289089, -0.029419537633657455, -0.4935626685619354, 0.10071294009685516, -0.33175456523895264, -0.024330420419573784, 0.6423927545547485, -0.6918006539344788, -0.24260708689689636, 0.16313740611076355, 0.17680901288986206, -0.5963568091392517, -0.223057359457016, 0.415675550699234, -0.4334374964237213], [0.5018270611763, 1.084680438041687, -0.03531733155250549, 0.12101514637470245, -0.07280223816633224, 0.48527464270591736, 0.04482836276292801, 0.6093377470970154, 0.9278845191001892, -0.19849203526973724, -0.15681876242160797, 0.41030460596084595, 0.9181113839149475, 0.0011034688213840127, 0.027373181656003, -0.6236052513122559], [0.29934754967689514, -0.28521764278411865, 0.32964399456977844, 0.0933067575097084, -0.5478018522262573, 0.2285497784614563, -0.3609037697315216, 0.12350093573331833, -0.11281760782003403, -0.6265835165977478, -0.6956619620323181, -0.5707682967185974, 0.6428293585777283, -0.005638022441416979, 0.4060748517513275, -0.1950056105852127], [-0.13061046600341797, 0.16665007174015045, 0.4355349540710449, 0.3895871937274933, 0.3218226730823517, -0.2695067226886749, 0.3558702766895294, -0.43072956800460815, -0.3420077860355377, 0.33166834712028503, 0.15440215170383453, 0.29474273324012756, 0.3490566611289978, -0.1584969460964203, -0.3435307443141937, -0.08482053875923157], [-0.46906179189682007, -0.09531774371862411, -0.7275077104568481, -0.4580128788948059, 0.9083158373832703, -0.6897547841072083, 0.49394604563713074, -0.06111213564872742, 1.374008297920227, 1.1399495601654053, 0.2956646978855133, 0.8326992392539978, 0.034069839864969254, 0.320651113986969, -0.3519822955131531, 0.10600084811449051], [0.18792690336704254, -0.6778737306594849, 0.015459495596587658, -0.25943732261657715, 0.014634537510573864, -0.2699267268180847, 0.267174631357193, -0.7248582243919373, 0.050189562141895294, 0.3827727735042572, 0.5044864416122437, 0.1295115202665329, -0.5962012410163879, 0.05661961808800697, 0.028595561161637306, 0.11289317905902863], [-0.1477731615304947, 0.14131976664066315, 0.17137344181537628, 0.40946030616760254, 0.514987587928772, 0.1790889948606491, 0.23522552847862244, 0.06241528317332268, -0.5436292290687561, -0.3797624409198761, 0.2730555236339569, 0.22423696517944336, 0.49166354537010193, 0.24439455568790436, 0.17071077227592468, 0.27510637044906616], [0.0848562940955162, -0.42783215641975403, -0.06091746315360069, -0.5929704904556274, 0.5699803233146667, -0.4305244982242584, 0.16397395730018616, 0.01767824962735176, 0.722174346446991, 0.46570441126823425, -0.1544349491596222, -0.1702275574207306, 0.14151252806186676, -0.18785631656646729, -0.0028871367685496807, 0.5755773186683655], [0.17690303921699524, 0.13488610088825226, -0.011897966265678406, -0.0009533321135677397, 0.3190406858921051, -0.38844916224479675, -0.2848435044288635, 0.14040568470954895, 0.1338266134262085, -0.44010505080223083, 0.2170528620481491, 0.21474045515060425, 0.08034056425094604, 0.2904023826122284, 0.03568214550614357, 0.04316619783639908], [0.18241247534751892, 0.2424737513065338, -0.006773271132260561, 0.2687588632106781, 0.07452090084552765, 0.06114541366696358, -0.2667141258716583, 0.5076345205307007, 0.12854306399822235, -0.2460360825061798, -0.7903323173522949, -0.4407784640789032, 0.003910863772034645, -0.15279895067214966, 0.6039796471595764, 0.2979030907154083], [-0.13589228689670563, -0.17049822211265564, 0.08017429709434509, 0.018908625468611717, 0.03362273797392845, 0.4368448853492737, 0.031732697039842606, 0.14415621757507324, 0.27899792790412903, 0.2549065053462982, 0.21045343577861786, -0.31033387780189514, 0.0631471499800682, -0.4186311364173889, 0.25244447588920593, 0.09760893881320953], [0.1290239542722702, 0.9871245622634888, 0.10545790940523148, 1.4200621843338013, -0.4959927201271057, 0.9924590587615967, -0.34341078996658325, 1.4871342182159424, 2.542902946472168, -0.07983651012182236, -0.7296869158744812, -9.690949440002441, 0.4164385497570038, -0.3782646059989929, 0.38230380415916443, 0.47783270478248596]], "2_weights": [[-0.3559139370918274, -0.16131456196308136, -0.24831022322177887], [0.1152743250131607, 0.6383023858070374, -0.14214041829109192], [-0.10876306146383286, -0.2872624099254608, 0.09086631238460541], [-0.08503790944814682, -0.0424204096198082, -0.5564088225364685], [0.5844351053237915, 0.4542997479438782, 0.12967556715011597], [-0.4808124601840973, -0.517169713973999, -0.497092604637146], [0.42148053646087646, 0.3241812586784363, 0.47264233231544495], [-0.5005588531494141, -0.52476567029953, -0.47830477356910706], [-3.7030704021453857, -3.465538740158081, -3.2415454387664795], [0.47825294733047485, 0.7322230339050293, 0.6169819831848145], [1.0558879375457764, 0.6015385985374451, 0.5908896327018738], [2.870145797729492, 2.351050853729248, 2.192561149597168], [-1.1175041198730469, -1.006323218345642, -1.1642231941223145], [-0.23740187287330627, -0.2909119427204132, 0.09240593761205673], [-0.026822032406926155, -0.33118683099746704, -0.45866528153419495], [0.6628884673118591, 0.2979722321033478, 0.3401823043823242]], "0_bias": [0.1018466204404831, -0.10536210238933563, -0.06169143691658974, -0.10554955154657364, 0.04060836136341095, -0.006211128085851669, -0.019754882901906967, 0.06383843719959259, -0.07903266698122025, 0.02276945672929287, 0.02600923180580139, -0.05662842467427254, -0.06946855038404465, 0.001747914939187467, -0.0024145564530044794, -0.023045029491186142], "1_bias": [0.15917368233203888, -0.21992087364196777, 0.007159055210649967, 0.07576768845319748, 0.08851037174463272, 0.15928617119789124, 0.030259640887379646, 0.12497314810752869, 0.01168878935277462, -0.03611698001623154, -0.015761712566018105, 0.1256110817193985, -0.03291791304945946, -0.05140860751271248, 0.048177219927310944, -0.027727358043193817], "2_bias": [0.01377033069729805, -0.04224162548780441, -0.023465992882847786]}