{"0_weights": [[-0.28233620524406433, -0.13447622954845428, -0.17354317009449005, -0.40181997418403625, -0.11336063593626022, -0.7342929244041443, -0.7018308639526367, 0.08368617296218872, -0.10619282722473145, -0.09013672173023224, 0.319476455450058, -0.32189276814460754, -0.23643158376216888, 0.2156725823879242, 0.4589031934738159, -0.3069756031036377], [-0.45358067750930786, 0.37224262952804565, 0.5602238178253174, 0.12622416019439697, -0.5005571842193604, 0.2604489028453827, 0.799470067024231, -0.270155668258667, 0.4528708755970001, 0.5860431790351868, -0.17068201303482056, -0.12183867394924164, -0.4372268617153168, 0.7130802869796753, 0.36930710077285767, -0.4476465880870819], [-0.7482738494873047, -0.20548999309539795, -0.3044328987598419, -0.6307368874549866, 0.021044669672846794, 1.1525211334228516, 0.07908517122268677, -0.12199768424034119, -0.757171630859375, -0.08965524286031723, -0.5472744107246399, 0.7834267616271973, -0.058633770793676376, -0.19921359419822693, 1.3011280298233032, -0.023865260183811188], [-0.21728204190731049, 0.5082671046257019, -0.11126313358545303, 0.20985417068004608, -0.4245505928993225, 0.22437551617622375, -0.6712606549263, 0.5876153707504272, -0.7195403575897217, -0.09460628032684326, -0.6016854643821716, 0.4031696021556854, 0.04873210936784744, -0.07493048906326294, -0.19696898758411407, -0.31210562586784363], [0.6693889498710632, 0.02783816121518612, 0.1390153467655182, 0.22155486047267914, -0.37896907329559326, 0.37899693846702576, 0.09256964921951294, 0.1014934778213501, 0.8651589155197144, 0.7963178157806396, 0.7662968635559082, 0.184626042842865, 0.4537079632282257, -0.5634782910346985, 0.16544218361377716, -0.05394686758518219], [0.6699177622795105, -0.35804274678230286, -0.14566443860530853, -0.4391496777534485, 0.4208736717700958, 0.6614297032356262, 0.38282671570777893, -0.3561539649963379, 0.02293821983039379, 0.0212290920317173, 0.41746771335601807, 0.6260126829147339, 0.18713317811489105, 0.8246071934700012, 0.2735622823238373, -0.5343534350395203], [-0.24378247559070587, 0.44044291973114014, -0.023683859035372734, 0.3435754179954529, -0.468986839056015, 0.7843652963638306, -0.3428517282009125, 0.1658957600593567, -0.4409370422363281, -0.5980432033538818, 0.48583704233169556, -0.616362988948822, 0.19230550527572632, 0.3896665573120117, 0.08675897866487503, 0.4041496217250824], [0.20605400204658508, -1.0730512142181396, 0.6090819239616394, 0.1655592918395996, -0.01773136854171753, 0.3734932243824005, 0.7587389945983887, 0.4772571623325348, -0.1274615377187729, 0.3069116175174713, 0.28911495208740234, 0.4043588936328888, -1.0327116250991821, -0.016142547130584717, -0.030271166935563087, -0.06594593077898026], [0.4640955328941345, -0.4141956865787506, 0.1376173347234726, -0.03361929953098297, -0.591219425201416, 0.15740299224853516, 0.29055994749069214, -0.012707672081887722, 1.0288071632385254, -0.44188007712364197, -0.2010241597890854, -0.24230535328388214, 0.2247975766658783, -0.22630317509174347, 0.040903009474277496, -0.7912834286689758], [0.06663757562637329, -0.4350133240222931, -0.06772470474243164, 0.0507962591946125, -0.6116377711296082, -0.2477465271949768, 0.19569267332553864, 0.03285185992717743, 0.2960774600505829, 0.18926836550235748, 0.36217424273490906, 0.2595318853855133, -0.6681848168373108, 0.316546767950058, -0.01360962726175785, 0.34831130504608154], [0.042325012385845184, 0.030192505568265915, 0.32798248529434204, -1.011060357093811, 0.11299989372491837, -0.06785807758569717, -0.14267779886722565, -0.9015310406684875, -0.1546899974346161, 0.03851677104830742, -0.31821832060813904, 0.24940048158168793, 0.12116070836782455, -0.14913024008274078, -0.030511295422911644, -0.10836169868707657]], "1_weights": [[0.19490161538124084, 0.7917488813400269, 0.40471309423446655, -0.4064106345176697, 0.9482153654098511, -0.30703771114349365, 0.663227915763855, -0.6254947185516357, -0.8260532021522522, 1.2352230548858643, 0.7059263586997986, 0.571363627910614, -0.17432427406311035, 0.20596610009670258, -0.3674268126487732, -0.18260924518108368], [0.2339695245027542, 0.6731376051902771, 0.3665359318256378, -0.33606693148612976, -0.1449681669473648, -0.7965500950813293, 0.19695162773132324, -0.7536796927452087, -0.5417319536209106, 0.06566254049539566, 0.06648849695920944, 0.42271438241004944, -0.11480606347322464, -0.7863311767578125, -0.4746358394622803, 0.5661918520927429], [0.22426292300224304, -0.14876702427864075, -0.17111361026763916, 0.25947052240371704, -0.6819818019866943, 0.20607919991016388, -0.17422470450401306, 0.5642251968383789, -0.1098446175456047, 0.3250648081302643, 0.15536119043827057, 0.13793496787548065, -0.8633336424827576, -0.29781487584114075, -0.08060690015554428, -0.022399693727493286], [0.49156126379966736, -0.35550737380981445, 0.08359071612358093, 0.3985467255115509, -0.5388228893280029, 0.29792991280555725, -0.22086577117443085, -0.20789356529712677, -0.1372760683298111, -0.16228057444095612, -0.5702694654464722, -1.6696360111236572, 0.0182932261377573, 0.4032283425331116, -0.10510514676570892, -0.4487331509590149], [0.3654756546020508, -0.8561358451843262, 0.48465630412101746, 0.5119313597679138, -0.7972484827041626, 0.8948190212249756, -0.9698153138160706, 1.421337604522705, -0.1991642862558365, -0.736821711063385, -0.3132428526878357, 0.2714460790157318, 0.6393688321113586, 0.36080068349838257, 0.6204867959022522, -0.9364168047904968], [0.49129676818847656, 0.509909987449646, -0.13583563268184662, 0.4664462208747864, -0.43116119503974915, 0.5789676308631897, 0.30596601963043213, 0.6304005980491638, 0.21864408254623413, -0.09033678472042084, 0.1844845414161682, 0.6202753186225891, 0.5152244567871094, 0.0833773985505104, 0.14267897605895996, -0.20528021454811096], [-0.0638657659292221, 0.7642999291419983, -0.3489256799221039, -0.05602935329079628, -0.9199482202529907, -0.0886664167046547, -0.44314059615135193, -0.3254593014717102, -0.010900914669036865, 0.023458000272512436, 0.45351317524909973, -0.8128467798233032, -0.15868335962295532, -0.08488453179597855, 0.05648312345147133, 0.30283769965171814], [-0.013000923208892345, 0.5903043746948242, 0.4797994792461395, 0.035424843430519104, 0.25227418541908264, -0.15491768717765808, 0.4040912985801697, -0.6963086724281311, -0.9912009239196777, 0.43697163462638855, 0.3431828022003174, -0.13582034409046173, -0.005346307065337896, -0.5862096548080444, -0.39817243814468384, 0.337252676486969], [-0.12135123461484909, -0.09463749080896378, 0.32672765851020813, 0.2768433392047882, -1.2993178367614746, 0.2052449882030487, -0.8535013794898987, 0.31787413358688354, 0.26432403922080994, 0.055804669857025146, -0.381853312253952, 0.24586819112300873, -0.28942808508872986, 0.7395018935203552, 0.03121003322303295, -0.011640333570539951], [0.5007268190383911, 0.11271054297685623, 0.10931484401226044, 0.1974485218524933, 0.049767233431339264, -0.15047018229961395, 0.2130710482597351, -0.38101592659950256, -0.17456819117069244, 0.32630717754364014, 0.47288429737091064, -0.25086861848831177, -0.7687143683433533, 0.09256032854318619, -0.06002022698521614, -0.09817127138376236], [-0.5888662934303284, -0.34334084391593933, 0.20761938393115997, 0.4428624212741852, 0.5454791784286499, 0.11202836781740189, 0.24845583736896515, 0.19810083508491516, -0.40185511112213135, -0.34531569480895996, 0.15471674501895905, 0.16004438698291779, 0.490714967250824, 0.4677030146121979, 0.2624536454677582, -0.020059486851096153], [0.30705001950263977, 0.6230340600013733, -0.10000190883874893, -0.3879370391368866, 0.8343037366867065, -0.2991151213645935, -0.1771828830242157, 0.012154846452176571, 0.3374868631362915, 0.4463058412075043, 0.24004200100898743, -0.31694209575653076, -0.05657946318387985, -0.2867957055568695, -0.0013957603368908167, 0.5520915985107422], [-0.38495007157325745, -0.3265378773212433, 0.3652583658695221, 0.33038613200187683, -2.4753494262695312, 0.1886313259601593, -1.6346949338912964, 0.562946081161499, 0.5354909896850586, -1.0456697940826416, -0.3767426013946533, 0.09441227465867996, 0.5493529438972473, 0.9029671549797058, 0.6081468462944031, -0.3249768614768982], [0.21925584971904755, -0.04748375713825226, 0.05947467312216759, 0.5878524780273438, -0.10597626864910126, 0.052154574543237686, -0.6143355965614319, 0.6014828681945801, 0.3899286687374115, -0.18883764743804932, -0.6668552160263062, -0.7055320143699646, 0.03322502598166466, -0.23011231422424316, 0.6895947456359863, 0.12923364341259003], [-0.3327544629573822, -0.234175443649292, 0.36554697155952454, -0.26670771837234497, -0.3020797371864319, 0.6064450144767761, -0.12250455468893051, -0.10256065428256989, 0.31337466835975647, 0.27140089869499207, 0.4541018307209015, -0.17287537455558777, 0.24387390911579132, -0.2209172546863556, 0.4167456328868866, 0.40836185216903687], [0.007863790728151798, -0.2293645292520523, 0.7815170288085938, 0.4873906373977661, -1.3805363178253174, 0.6110362410545349, -0.7740611433982849, 0.6284138560295105, 0.3750460147857666, -0.08120294660329819, -1.1546969413757324, -2.010782241821289, 0.5115438103675842, 0.7009047269821167, 0.2594565153121948, -0.40974581241607666]], "2_weights": [[1.0725678205490112, 0.4686024785041809, 0.10479742288589478], [0.6015685200691223, 0.6202378273010254, 0.1896323263645172], [-0.321783185005188, -0.6305966973304749, -0.12983854115009308], [-0.14251670241355896, 0.12765900790691376, -0.5753608345985413], [2.262423038482666, 2.3623435497283936, 2.4621453285217285], [0.01515298429876566, -0.6607338786125183, -0.4016130864620209], [2.1413841247558594, 1.6974515914916992, 1.6866267919540405], [-0.22772297263145447, -0.11584357172250748, -0.4605996310710907], [-0.8128579258918762, -0.7349891662597656, -0.5337904095649719], [0.379936158657074, 0.46248432993888855, 0.5304861068725586], [0.578223466873169, 0.19808518886566162, 0.30377712845802307], [1.2021591663360596, 1.1212208271026611, 1.1856884956359863], [-0.9343817830085754, -1.0424387454986572, -1.2706611156463623], [-1.3575208187103271, -1.1712149381637573, -1.2075531482696533], [-0.08041054755449295, -0.40666136145591736, -0.1583733707666397], [0.36368563771247864, -0.08426995575428009, 0.08936040848493576]], "0_bias": [0.09059321135282516, 0.014271046034991741, -0.005789842922240496, 0.019405897706747055, -0.05886993557214737, -0.04411131143569946, -0.02302701771259308, -0.02033384144306183, -0.06214684993028641, 0.03780651465058327, -0.06395506858825684, 0.027273131534457207, -0.0013265268644317985, 0.09029477834701538, -0.03626956045627594, 0.06199868768453598], "1_bias": [-0.42210283875465393, 0.014693105593323708, -0.08730694651603699, 0.05047892779111862, 0.08455301076173782, -0.08098895102739334, 0.11423680931329727, -0.005444478243589401, 0.09669575095176697, 0.18832962214946747, -0.2585282325744629, 0.08648563921451569, 0.005981252528727055, 0.1771719753742218, -0.0898183062672615, -0.056009210646152496], "2_bias": [-0.01712520234286785, 0.17589473724365234, 0.08808202296495438]}