{"0_weights": [[-0.5317031145095825, 0.14429442584514618, -0.5957417488098145, 0.2926149368286133, 1.2427616119384766, -0.5340025424957275, -0.33022844791412354, 0.631534993648529, -0.310255229473114, 0.17283950746059418, 0.6953262686729431, 0.0720021203160286, 0.11276935040950775, 0.5810778141021729, 0.18512113392353058, -0.8110421299934387], [0.17166927456855774, 0.002025496680289507, 0.3756839632987976, -0.060161054134368896, -0.8803719878196716, -0.15399879217147827, 1.4400004148483276, -0.2427978813648224, 0.5575939416885376, 0.32147130370140076, -0.017578935250639915, -0.1929628551006317, -0.45001450181007385, 0.31465771794319153, 0.011212216690182686, -0.5470947623252869], [-0.2895020544528961, -0.23356640338897705, -0.02477499097585678, -0.2793041467666626, -0.28865423798561096, 1.1537878513336182, -0.5247602462768555, -0.20865224301815033, -0.48515158891677856, 0.3741961121559143, -0.11400914192199707, 0.5741283297538757, -0.1980201154947281, 0.15278485417366028, 1.2270410060882568, -0.4469177722930908], [0.6531882882118225, 0.12303242087364197, -0.3388621211051941, 0.6399068832397461, 0.03691608086228371, 0.5096577405929565, 0.35303691029548645, 0.18409737944602966, -0.06128266826272011, -0.2234477698802948, -0.8875480890274048, 0.6617637872695923, -0.4203929007053375, -0.2575978636741638, -0.0355595126748085, 0.26085951924324036], [0.001386785414069891, -0.5852984189987183, 0.18985474109649658, 1.120712161064148, 0.11477340012788773, 0.33572137355804443, 0.7137431502342224, 0.5879783034324646, 0.5749229788780212, 1.0028529167175293, 1.2164783477783203, 0.15840552747249603, 0.880944013595581, -0.5016929507255554, 0.5822615623474121, 0.27923548221588135], [0.24210236966609955, -0.47486141324043274, 0.25559747219085693, -0.9286665916442871, 0.7424877882003784, 0.787022054195404, 0.27166202664375305, -0.6527097225189209, 0.31732773780822754, -0.2626363933086395, 0.07569713145494461, -0.2602660059928894, 0.02594125084578991, 0.6542581915855408, 0.21060828864574432, -0.19549664855003357], [-0.211874857544899, 0.4642792046070099, -0.44060420989990234, -0.1717887669801712, -0.7304343581199646, 0.3563635051250458, -0.7976829409599304, 0.16093429923057556, -0.6743568778038025, -0.8030457496643066, 0.38480138778686523, -0.5732434391975403, 0.1905803084373474, 0.117098368704319, 0.1638236790895462, 0.7514536380767822], [0.1119876578450203, -0.7726377844810486, 0.5382446050643921, -0.20457029342651367, 0.4986202120780945, 0.01477239839732647, 0.5336968302726746, 0.41438326239585876, -0.2740557789802551, 0.17958910763263702, 0.449348121881485, 0.18113596737384796, -1.4956765174865723, -0.034302886575460434, -0.08795192837715149, -0.22318637371063232], [0.410411536693573, -1.0509356260299683, 0.5615105628967285, -0.09145568311214447, -0.8523592948913574, -0.05167415365576744, 0.981540322303772, -0.5378555655479431, 0.5968231558799744, -0.1839730143547058, -0.49666064977645874, -0.26939284801483154, -1.2741066217422485, -0.32247164845466614, -0.36219120025634766, -0.7589877843856812], [-0.40639811754226685, 0.45521458983421326, 0.39321690797805786, 0.6026018261909485, -0.7393692135810852, 0.788013756275177, -0.9553342461585999, -0.6614113450050354, -0.07015249133110046, 0.4289807975292206, 0.9491382241249084, -0.8082030415534973, -0.3531830608844757, 0.969120442867279, -0.7576740980148315, 0.7079457640647888], [0.4616169333457947, -0.16819465160369873, -0.18380798399448395, 0.10833223909139633, -0.6897645592689514, -0.12230193614959717, -0.024231839925050735, -0.5366097688674927, -0.4787507653236389, -0.16747334599494934, -0.03434530645608902, -0.2896231710910797, -0.29959776997566223, -0.1433648318052292, -0.43565699458122253, -0.23608188331127167]], "1_weights": [[0.9178488850593567, 1.0297000408172607, 0.05241942033171654, -0.6725805401802063, -1.2667946815490723, -1.2062010765075684, 0.6944466829299927, -1.26998770236969, 0.004353489261120558, 1.0444010496139526, 1.4804917573928833, 1.233108639717102, -0.8020893335342407, -0.1379607915878296, -0.810450553894043, 0.7252739667892456], [-0.6084412932395935, 1.1845184564590454, 0.004555273801088333, -2.0736136436462402, -0.05625813826918602, -2.3530166149139404, -0.09225694835186005, -0.9126903414726257, -0.34443631768226624, 0.2700323462486267, 2.326829433441162, 1.6357249021530151, -0.13563650846481323, -0.32128623127937317, -0.609531819820404, 1.4716367721557617], [0.8895034790039062, 0.11832209676504135, -0.36348575353622437, -0.04084208980202675, 0.5717722177505493, 0.21472343802452087, 0.164768785238266, -0.04545440152287483, -0.19639728963375092, 0.7128616571426392, 0.5080738067626953, 0.6796472668647766, -0.8758050799369812, -0.37350213527679443, -0.5606671571731567, 0.5627686977386475], [0.1003587618470192, 0.35571855306625366, -0.7908639907836914, 0.30034783482551575, -0.35855355858802795, 0.8479470014572144, 0.5373340845108032, -1.2013753652572632, -0.45747536420822144, 0.933103621006012, 0.24828408658504486, 0.318221777677536, -1.068393349647522, 0.30412325263023376, -0.8506608605384827, 1.3215922117233276], [-0.026331692934036255, -0.467987984418869, 0.2602348327636719, -0.21846500039100647, 0.6608207821846008, -2.6176235675811768, 0.5384140014648438, 0.26727601885795593, 0.15439145267009735, -0.0647372230887413, -0.2259623259305954, -0.1007348895072937, 0.056293729692697525, -0.2211596816778183, 0.21569927036762238, -0.35144850611686707], [0.6083652377128601, 0.7471176385879517, -0.08515430986881256, -0.12138893455266953, -0.5633009672164917, 0.6246750950813293, -0.17880846560001373, 0.21845419704914093, 0.18823595345020294, -0.10375075042247772, 0.3461613655090332, 0.6002630591392517, 0.2919711768627167, -0.0790814757347107, -0.11898278445005417, 0.07292044907808304], [0.053133025765419006, 0.5794756412506104, 0.15001194179058075, 0.41720616817474365, -0.9171560406684875, -0.1521063596010208, -0.7635031342506409, 0.1788431853055954, 0.2922852337360382, -0.4567590355873108, -0.2051141858100891, -0.35135334730148315, 0.49944108724594116, -0.05474063754081726, 0.535839855670929, -0.18974633514881134], [-0.07924086600542068, 0.7008906602859497, 0.49285873770713806, -0.04511221870779991, 0.5849541425704956, -0.406232625246048, 0.2595702111721039, -0.025794100016355515, -0.3858732581138611, 0.31676942110061646, 0.19171321392059326, 0.24330374598503113, 0.41494742035865784, -0.2020791918039322, -0.057337623089551926, 0.4530313014984131], [0.29438117146492004, 0.5487454533576965, -0.19986145198345184, 0.009533085860311985, 0.37105733156204224, -0.03830823674798012, -0.6796184778213501, -0.5648776888847351, -0.4684305787086487, 0.8061867356300354, 0.03473006561398506, 0.44726845622062683, -0.5591138601303101, 0.2632008194923401, -0.7403197288513184, 0.3704540431499481], [0.866679310798645, -0.11928597837686539, -0.47598350048065186, -0.03596911206841469, -0.2887856364250183, -0.43129825592041016, -0.2420659214258194, -0.7963199019432068, -0.33736538887023926, 0.7231608629226685, 0.160017192363739, 0.8093212246894836, -0.6572472453117371, 0.019168667495250702, -0.24177610874176025, 0.2281932830810547], [-0.44232141971588135, -0.698052704334259, 0.4172079563140869, 0.5857850313186646, 0.5140038132667542, 0.03544420376420021, 0.4245886504650116, 0.29754364490509033, 0.09901896864175797, -0.38173115253448486, -0.07735557109117508, -0.4063144028186798, 0.4198049306869507, 0.1763608604669571, 0.4191855192184448, -0.16353438794612885], [0.38217246532440186, 0.3598707318305969, 0.20359277725219727, -0.7951422929763794, 0.36278918385505676, 0.10644747316837311, 0.26743942499160767, 0.09437709301710129, 0.2779092490673065, 0.26282912492752075, -0.121390201151371, 0.2746412754058838, 0.2094888538122177, -0.07781685143709183, 0.2908380925655365, 0.41492757201194763], [-7.279158115386963, -4.540135860443115, 0.6460867524147034, 1.8709465265274048, 0.5717116594314575, -5.119213581085205, 0.6076220870018005, 1.0783878564834595, 0.7146181464195251, -0.1961381733417511, -5.797913551330566, -5.0965895652771, 0.7707237601280212, 0.24132268130779266, 0.7022490501403809, -5.409106731414795], [0.20240375399589539, 0.003091172780841589, 0.09558814764022827, 0.45658063888549805, -0.1682591438293457, -0.29082992672920227, -0.31390419602394104, 0.5592512488365173, 0.25506719946861267, 0.31471216678619385, -0.6272962093353271, -0.2344990372657776, -0.021778425201773643, -0.24028919637203217, 0.6291998028755188, -0.048358213156461716], [-0.16077731549739838, 0.0774247795343399, 0.2761249244213104, 0.20488615334033966, 0.09141775965690613, 0.34033268690109253, 0.186541348695755, 0.221696674823761, 0.49173933267593384, 0.18686643242835999, 0.5102030634880066, 0.07894385606050491, 0.17227114737033844, -0.4849945306777954, 0.38762614130973816, 0.2087211161851883], [0.8579490184783936, -1.6677402257919312, 0.2754709720611572, -0.1545502096414566, -2.01452898979187, 2.212116241455078, 0.1857132762670517, 0.1581403613090515, 0.4148225486278534, 0.47958388924598694, -2.542377233505249, -1.3098820447921753, -0.012447667308151722, -0.37796565890312195, 0.22943033277988434, -1.7061299085617065]], "2_weights": [[0.7506681680679321, 0.702117383480072, 0.6530471444129944], [0.70680832862854, 0.8333680629730225, 0.7713812589645386], [-0.4289626181125641, -0.49525532126426697, -0.1685369908809662], [-0.8023909330368042, -0.8683644533157349, -0.8100605607032776], [1.4691345691680908, 1.3804336786270142, 1.2473716735839844], [-3.2314746379852295, -2.9542195796966553, -2.553957939147949], [1.0425876379013062, 1.0239182710647583, 0.8877511620521545], [-0.3663334846496582, -0.03320370241999626, -0.21510525047779083], [-0.37136295437812805, -0.5284153819084167, 0.08797823637723923], [0.6915158033370972, 0.6779874563217163, 0.3271048069000244], [1.456581950187683, 1.3556623458862305, 1.112982988357544], [1.060533881187439, 1.138864278793335, 1.2574714422225952], [-0.8029893636703491, -0.6608806252479553, -0.931419849395752], [-0.15658186376094818, -0.27640846371650696, 0.06298831105232239], [-0.39134567975997925, -0.49990782141685486, -0.5911693572998047], [1.1675854921340942, 0.6929494738578796, 0.22468380630016327]], "0_bias": [-0.34153562784194946, 0.08548257499933243, -0.011304923333227634, 0.002921283943578601, 0.03646446019411087, -0.26637107133865356, 0.1427067071199417, -0.055106502026319504, -0.18826846778392792, -0.28499138355255127, 0.1021488681435585, -0.13126583397388458, -0.019377486780285835, 0.1082051545381546, -0.13922326266765594, -0.15726760029792786], "1_bias": [-0.146818146109581, -0.0919954851269722, 0.09313811361789703, 0.04807148873806, 0.1429748684167862, -0.24891401827335358, -0.049179162830114365, 0.25879359245300293, 0.2011362761259079, 0.07957957684993744, -0.05399525538086891, -0.08438298851251602, 0.14992952346801758, -0.0936957374215126, 0.1863875389099121, -0.0717383623123169], "2_bias": [0.04158606380224228, -0.07272598892450333, -0.1375051587820053]}